<?xml version="1.0"?>
<opencv_storage>
<stage1>
  <maxWeakCount>13</maxWeakCount>
  <stageThreshold>-7.9391442239284515e-02</stageThreshold>
  <weakClassifiers>
    <_>
      <internalNodes>
        0 -1 796173 93647855 -277226001 -276722065 -272564770
        -1904640001 -15349029 -591799041 -1360216131</internalNodes>
      <leafValues>
        -7.8950387239456177e-01 5.1510202884674072e-01</leafValues></_>
    <_>
      <internalNodes>
        0 -1 15712 100414821 -1248736983 -526613139 -337059337
        1234457885 -606084673 -840150699 -17798283</internalNodes>
      <leafValues>
        -6.8286120891571045e-01 5.8125424385070801e-01</leafValues></_>
    <_>
      <internalNodes>
        0 -1 595048 1018264663 -2024972537 -1399545181 -1355882176
        -1383899843 -41759857 -1730539700 -1090760863</internalNodes>
      <leafValues>
        -6.4191716909408569e-01 5.9802365303039551e-01</leafValues></_>
    <_>
      <internalNodes>
        0 -1 548 1044134908 922662911 -1141526530 -1359171602 2147287031
        -1057810 -168201 -1229144148</internalNodes>
      <leafValues>
        -7.4480658769607544e-01 4.9844464659690857e-01</leafValues></_>
    <_>
      <internalNodes>
        0 -1 77930 85201208 -1109585442 -1751939089 -1076035172
        -896869185 -72827144 -670499921 -1095234908</internalNodes>
      <leafValues>
        -6.0215193033218384e-01 6.3246357440948486e-01</leafValues></_>
    <_>
      <internalNodes>
        0 -1 796022 76602607 -1493076994 -250033144 -425537269 160460335
        -947793653 -763172137 -1493900395</internalNodes>
      <leafValues>
        -6.4077168703079224e-01 5.7466417551040649e-01</leafValues></_>
    <_>
      <internalNodes>
        0 -1 47650 228605805 805162351 -285446345 1320972077 -304578705
        -939557011 -805470861 -289837451</internalNodes>
      <leafValues>
        -5.7192724943161011e-01 6.5666580200195312e-01</leafValues></_>
    <_>
      <internalNodes>
        0 -1 782830 757346141 -1363153603 -1141653654 -1950352025
        230645327 -33685505 -419541204 -2097660043</internalNodes>
      <leafValues>
        -5.5006349086761475e-01 6.6238152980804443e-01</leafValues></_>
    <_>
      <internalNodes>
        0 -1 3138 -1076054042 769587199 -1309163674 -1359037522
        1610420212 2073426523 -74453131 -1125859548</internalNodes>
      <leafValues>
        -7.6382482051849365e-01 4.8835417628288269e-01</leafValues></_>
    <_>
      <internalNodes>
        0 -1 589320 137911140 203643147 -721268668 -358263480
        -2002507500 -33880691 -1346903978 -1124569787</internalNodes>
      <leafValues>
        -6.5737390518188477e-01 5.4174876213073730e-01</leafValues></_>
    <_>
      <internalNodes>
        0 -1 17553 956317692 -1613685797 524652526 -1342260897 -81560961
        -24440405 -1144409433 -1073993254</internalNodes>
      <leafValues>
        -6.9548702239990234e-01 5.4896199703216553e-01</leafValues></_>
    <_>
      <internalNodes>
        0 -1 594520 128007535 25236547 -469411283 1658926883 1745374283
        -623785835 -522679037 -1897342631</internalNodes>
      <leafValues>
        -6.6645812988281250e-01 6.0454022884368896e-01</leafValues></_>
    <_>
      <internalNodes>
        0 -1 795847 670629277 99176637 58806325 -338118464 12585039
        1203489033 -69711385 -1364157567</internalNodes>
      <leafValues>
        -6.9009864330291748e-01 5.5176889896392822e-01</leafValues></_></weakClassifiers></stage1>
</opencv_storage>
